tree
version=v4
num_class=1
num_tree_per_iteration=1
label_index=0
max_feature_idx=12
objective=binary sigmoid:1
feature_names=hour_sin hour_cos is_weekend is_rush_hour occupancy bikes_available docks_available temp_norm is_raining wind_norm trend_15min velocity acceleration
feature_infos=[-1:0.96592582628906831] [-1:1] [0:1] [0:1] [0:1] [0:28] [0:29] [0:0.99989248467906677] [0:1] [0.21097656137105864:0.99997109910118209] [-0.9999333377774815:0.93744140991188041] [-15:15] [-15:15]
tree_sizes=3372 3417 3409 3423 3416 3396 3434 3437

Tree=0
num_leaves=31
num_cat=0
split_feature=5 5 5 5 6 10 10 5 5 4 10 10 11 1 6 10 12 1 4 10 10 4 4 10 7 11 12 7 1 7
split_gain=266414 19626.6 14570.9 4948.14 3382.62 1499.78 1449.86 1441.26 907.586 894.25 724.775 655.051 519.149 499.693 494.404 452.246 418.891 390.456 524.318 371.876 355.146 334.667 313.387 295.632 441.218 262.204 261.363 261.192 238.858 351.71
threshold=3.5000000000000004 2.5000000000000004 5.5000000000000009 1.5000000000000002 13.500000000000002 0.051313154567522924 -1.0000000180025095e-35 4.5000000000000009 7.5000000000000009 0.18898809523809526 -0.054090639158656396 0.070193304477128529 1.0000000180025095e-35 0.60355339059327384 18.500000000000004 0.083474770656580377 1.5000000000000002 0.98296291314453421 0.46410256410256417 0.07417031498530266 0.070193304477128529 0.26491228070175443 0.92153846153846175 0.067812680860297639 0.36017632512633052 -3.4999999999999996 2.5000000000000004 0.31717019675303731 -0.9159756150367534 0.6397161595527362
decision_type=2 2 2 2 2 2 2 2 2 2 2 2 2 2 2 2 2 2 2 2 2 2 2 2 2 2 2 2 2 2
left_child=1 3 4 -1 7 6 -3 19 16 28 -11 26 14 -5 -8 -12 17 20 -19 21 -4 -2 25 24 -7 -10 -9 -13 -6 -30
right_child=2 5 8 13 9 23 12 11 22 10 15 27 -14 -15 -16 -17 -18 18 -20 -21 -22 -23 -24 -25 -26 -27 -28 -29 29 -31
leaf_value=-1.8909356526747025 -2.137760679390003 -2.1374528934758712 -2.5408492230263366 -2.0031965844773918 -2.1293627378065052 -2.5036106942301677 -2.3383834302830464 -2.3967231624249834 -2.3531753963468764 -2.2812935107249244 -2.4913363866337024 -2.5918224795002103 -2.087254672038334 -2.1175969323879005 -2.1719270710171408 -2.2884839234266003 -2.4004355291410153 -2.4856472978214783 -2.1540478243236354 -2.0794960783752297 -2.4288963743325649 -2.2578588317020385 -2.498075556748149 -1.9958885120323737 -2.0968348861378576 -2.5762569992649369 -2.1309960756717037 -2.1435526577150936 -2.2775235194524606 -2.5918224795002103
leaf_weight=3036.4166827201843 76.630384057760239 236.69710552692413 806.72266018390656 1012.4295632839203 19.15170231461525 7.1717751920223227 289.5594465136528 249.68258684873581 13.254616081714628 50.932051181793213 465.88533362746239 3.5297943353652945 27.583947777748108 105.38903412222862 52.732722997665405 29.198040038347244 76.027164429426193 47.667267113924026 15.896274358034132 48.158300220966339 77.659144014120102 238.68472594022751 141.71491253376007 77.495770215988159 94.578121811151505 2113.4603206217289 9.6097914874553663 40.927175581455231 52.333970248699188 10.725144326686857
leaf_count=5532 488 1506 11127 3938 119 94 2914 2781 137 459 6001 52 150 632 369 267 852 609 106 255 911 2048 1843 291 531 30529 60 265 468 158
internal_value=-2.22218 -1.96739 -2.49654 -1.92404 -2.35448 -2.19654 -2.23409 -2.27608 -2.55243 -2.43775 -2.4609 -2.35647 -2.29592 -2.01398 -2.31274 -2.47937 -2.51336 -2.52242 -2.40272 -2.20891 -2.53102 -2.22867 -2.57007 -2.06947 -2.12551 -2.57487 -2.38687 -2.17914 -2.28401 -2.33098
internal_weight=9527.91 4940.05 4587.85 4154.24 1295.45 785.819 606.573 667.223 3292.4 628.226 546.015 303.749 369.876 1117.82 342.292 495.083 1023.97 947.945 63.5635 363.473 884.382 315.315 2268.43 179.246 101.75 2126.71 259.292 44.457 82.2108 63.0591
internal_count=75492 15957 59535 10102 13421 5855 4939 5949 46114 7472 6727 3158 3433 4570 3283 6268 13605 12753 715 2791 12038 2536 32509 916 625 30666 2841 317 745 626
is_linear=0
shrinkage=1


Tree=1
num_leaves=31
num_cat=0
split_feature=5 5 5 6 4 5 5 10 10 1 1 2 10 4 12 1 6 4 1 12 6 7 1 7 11 10 12 10 6 11
split_gain=106882 11006.9 3076.91 1183.7 1275.9 832.735 786.492 595.352 670.997 579.143 536.934 428.835 378.978 445.592 323.141 308.585 378.552 303.243 301.761 333.914 308.234 266.878 421.264 264.492 250.999 278.765 243.805 249.475 223.354 216.235
threshold=4.5000000000000009 2.5000000000000004 5.5000000000000009 13.500000000000002 0.18898809523809526 7.5000000000000009 1.5000000000000002 0.059024281650693039 -0.05131315456752291 0.60355339059327384 0.98296291314453421 1.0000000180025095e-35 0.051313154567522924 0.13563218390804602 1.5000000000000002 0.98296291314453421 1.0000000180025095e-35 0.26491228070175443 0.98296291314453421 -1.0000000180025095e-35 8.5000000000000018 0.59671003117944321 0.98296291314453421 0.6182130953660897 -1.0000000180025095e-35 0.10435116341162447 1.5000000000000002 0.07417031498530266 8.5000000000000018 -3.4999999999999996
decision_type=2 2 2 2 2 2 2 2 2 2 2 2 2 2 2 2 2 2 2 2 2 2 2 2 2 2 2 2 2 2
left_child=1 6 7 9 12 14 -1 8 -2 26 17 -12 13 -5 18 29 -17 -11 19 -4 -20 -10 -23 -18 -6 -26 27 -3 -9 -7
right_child=2 3 5 4 24 15 -8 28 21 10 11 -13 -14 -15 -16 16 23 -19 20 -21 -22 22 -24 -25 25 -27 -28 -29 -30 -31
leaf_value=0.3600098282032887 0.16427600019792807 0.24535568777169325 0.062066897767786892 0.27287197970049509 0.20735472826633827 0.14958719107392041 0.32083128072940714 0.33945933955687785 0.078817649591158098 0.15241258147162218 0.34953799420093201 -0.055130685220293477 0.29634776412568231 0.16606122691286418 0.11589674588006067 0.34070838150073907 -0.019783312190359149 -0.035007723518808175 0.24501760919504856 -0.010419970695046006 0.03157097587559507 -0.039783042228176663 0.21229928054231714 0.1430025267742657 0.052627007421286724 0.27176773591762104 0.33913777526317235 0.3261461724127368 0.16988206002343179 -0.037994901856236871
leaf_weight=5096.7597996592522 167.57372675836086 637.17275946587324 207.05470836162567 132.80721757560968 36.220890730619431 15.479921400547026 1710.9884016141295 24.029036775231361 218.57849980890751 69.981298789381981 45.326529040932655 7.6520637571811667 111.24775011837482 368.79570147395134 85.375517822802067 9.614014655351637 111.53888332843781 31.206285566091537 27.369854636490345 682.77726091444492 44.273986756801605 130.75820989906788 18.978833347558975 32.143880009651184 231.00360815227032 15.484946787357329 104.07903462648392 112.411367662251 101.18441073596478 2038.4350382387638
leaf_count=5532 1476 3666 2557 620 296 137 4570 99 2457 526 193 91 416 2841 852 67 1624 350 161 9481 554 1763 164 372 2795 92 342 307 782 30309
internal_value=0.222918 0.320445 0.00592469 0.214152 0.172323 -0.0140543 0.350163 0.104265 0.0813291 0.251321 0.162131 0.291089 0.212858 0.194341 0.0226731 -0.0314736 0.0369585 0.0946121 0.0143952 0.00644697 0.113113 0.0435905 -0.00783217 0.0166342 0.0844539 0.0663939 0.267428 0.257471 0.202425 -0.0365811
internal_weight=12626.3 8711.14 3915.17 1903.39 895.56 3254.06 6807.75 661.103 535.889 1007.83 154.166 52.9786 612.851 501.603 1046.85 2207.21 153.297 101.188 961.476 889.832 71.6438 368.316 149.737 143.683 282.709 246.489 853.663 749.584 125.213 2053.91
internal_count=75492 22637 52855 12535 7060 46114 10102 6741 5860 5475 1160 284 3877 3461 13605 32509 2063 876 12753 12038 715 4384 1927 1996 3183 2887 4315 3973 881 30446
is_linear=0
shrinkage=0.05


Tree=2
num_leaves=31
num_cat=0
split_feature=5 5 5 10 10 6 4 1 12 5 7 5 1 7 7 7 10 7 1 5 1 1 1 4 3 1 1 12 10 7
split_gain=63950 5455.39 2621.03 754.511 826.104 649.065 767.116 534.761 414.747 402.463 322.609 316.326 313.956 376.77 317.467 305.141 265.702 242.7 237.372 220.683 220.553 204.381 188.984 179.432 176.773 219.571 169.194 193.226 166.756 147.132
threshold=4.5000000000000009 2.5000000000000004 6.5000000000000009 0.070193304477128529 -0.059024281650693025 14.500000000000002 0.18898809523809526 0.98296291314453421 2.5000000000000004 1.5000000000000002 0.6182130953660897 5.5000000000000009 0.60355339059327384 0.84399526932587909 0.59671003117944321 0.84399526932587909 -0.17315666518778641 0.29566713256639077 -0.12940952255126037 8.5000000000000018 -0.37940952255126015 0.9159756150367534 -0.9159756150367534 0.14039408866995076 1.0000000180025095e-35 0.78656609248549303 -0.98296291314453399 -1.0000000180025095e-35 -0.212392822648345 0.36017632512633052
decision_type=2 2 2 2 2 2 2 2 2 2 2 2 2 2 2 2 2 2 2 2 2 2 2 2 2 2 2 2 2 2
left_child=1 9 3 4 18 12 21 16 11 -1 17 -6 28 14 -14 -12 22 19 20 -9 -2 23 -4 -7 25 -8 27 -18 -3 -5
right_child=2 5 7 29 8 6 24 10 -10 -11 15 -13 13 -15 -16 -17 26 -19 -20 -21 -22 -23 -24 -25 -26 -27 -28 -29 -30 -31
leaf_value=0.26455001978388959 0.12719758630071126 0.2888192654913514 0.21587785707970825 0.023359365726863125 0.051376635114662686 0.21886233806833327 0.14938812663987766 0.21639058919334742 0.26862510888953478 0.23966266181425838 0.22830246180085642 -0.0080501327043692832 0.12146436874853397 -0.055795623217380776 0.28528531384147388 -0.054600857719065636 0.10879753309544678 -0.033455521184334938 0.048151620806819811 0.01788899759254271 0.25197256263065521 0.061256857642581188 0.020591965814595072 0.15837160829392188 0.020321606083574723 0.014780147492334986 -0.03603840151795696 -0.017362028811129141 0.19939902611194957 0.18279134488700549
leaf_weight=6540.8780229091644 124.97932491451502 54.809697769582272 16.397380821406841 16.134639210999012 471.2090617492795 164.69473876804113 89.855193205177784 23.276833340525627 17.541234999895096 2161.1994263976812 40.181683547794819 426.71153067052364 124.54908765107393 22.997683107852936 38.781805925071239 12.495677568018435 42.797126322984695 91.541158214211464 61.269421882927418 35.138759113848209 49.420283608138561 43.006535202264786 50.674642786383629 479.55028461664915 118.07622601091862 45.704671896994114 2213.1898909807205 104.35836673527956 1069.3514039814472 140.33525415509939
leaf_count=5532 1117 138 153 174 5151 588 809 170 85 4570 287 5865 875 251 108 164 526 1297 630 465 308 340 642 2821 1365 555 33396 1547 4685 878
internal_value=0.178295 0.240421 0.00547965 0.0633335 0.0493305 0.171047 0.139363 -0.0232839 0.0278396 0.258369 0.0547501 0.0231357 0.193795 0.133683 0.160363 0.161195 -0.029798 0.0173579 0.132813 0.0969858 0.162556 0.166791 0.0683343 0.173835 0.0650472 0.104004 -0.0325865 0.0193289 0.203759 0.166351
internal_weight=14891.1 10953.5 3937.65 1307.6 1151.13 2251.38 940.888 2630.05 915.462 8702.08 202.634 897.921 1310.49 186.329 163.331 52.6774 2427.42 149.957 235.669 58.4156 174.4 687.252 67.072 644.245 253.636 135.56 2360.35 147.155 1124.16 156.47
internal_count=75492 22637 52855 14208 13156 12535 6478 38647 11101 10102 2383 11016 6057 1234 983 451 36264 1932 2055 635 1425 3749 795 3409 2729 1364 35469 2073 4823 1052
is_linear=0
shrinkage=0.05


Tree=3
num_leaves=31
num_cat=0
split_feature=5 5 5 10 10 1 10 11 12 0 5 6 10 7 7 1 7 7 5 11 6 0 0 7 1 11 0 7 5 7
split_gain=43691.4 3524.55 2273.04 563.135 699.051 478.777 408.644 440.141 336.368 300.18 291.31 281.198 237.8 237.364 219.868 239.502 210.063 203.923 188.817 185.735 167.623 164.278 160.44 213.731 159.135 370.848 144.796 254.261 142.256 140.206
threshold=4.5000000000000009 2.5000000000000004 6.5000000000000009 0.06457915825631208 -0.05131315456752291 0.98296291314453421 0.067812680860297639 -1.0000000180025095e-35 1.5000000000000002 -0.25881904510252113 1.5000000000000002 12.500000000000002 -0.17315666518778641 0.6182130953660897 0.59671003117944321 0.98296291314453421 0.84399526932587909 0.29566713256639077 5.5000000000000009 -6.4999999999999991 8.5000000000000018 0.12940952255126059 -0.25881904510252113 0.5752069669927965 -0.98296291314453399 -1.0000000180025095e-35 -0.78656609248549303 0.5106977744328568 7.5000000000000009 0.6397161595527362
decision_type=2 2 2 2 2 2 2 2 2 2 2 2 2 2 2 2 2 2 2 2 2 2 2 2 2 2 2 2 2 2
left_child=1 10 3 4 9 12 7 -3 11 19 -1 -9 22 17 18 -16 -15 20 -6 -2 -7 -11 -4 -24 25 -14 -5 -28 -26 -29
right_child=2 6 5 26 14 13 -8 8 -10 21 -12 -13 24 16 15 -17 -18 -19 -20 -21 -22 -23 23 -25 28 -27 27 29 -30 -31
leaf_value=0.21327090779873592 0.51107756542323102 0.17950705710389611 -0.01723926884466849 0.16883036849153038 0.066574604673725432 0.13229836148460547 0.19625388703495555 0.14014975462329063 0.19258522736754125 0.21675042931072785 0.19370346153399279 0.098397495579681152 0.17314774013393086 0.17992450688708342 -0.034529423959856663 0.11573756327913501 -0.054357145025563672 -0.032722013361284719 0.0049177992005408552 0.052409910849681413 -0.054424687464244781 0.11191753958096416 -0.054784041326911996 0.20986609837723577 -0.0077293843548956707 -0.021929056303825613 -0.055436151609033472 0.17311369929081358 -0.041348214690791404 0.065056267519352493
leaf_weight=7672.9081733226776 2.23433494567871 449.23365140706301 34.145522519946098 106.60411797463894 249.80085961520672 47.143680781126022 312.9197668209672 736.66653759032488 163.21639412641525 60.408923394978046 2529.0029944628477 891.04041740298271 30.625631235539913 48.187937900424004 257.38518623262644 29.562462039291859 11.938200421631334 88.979247592389584 246.89799808710814 181.60527736693621 16.132124833762646 97.986177995800972 10.750172801315783 26.275484457612038 383.05343946069479 119.13214584439993 24.316212087869644 63.244333796203136 1762.4062585309148 57.14121562987566
leaf_count=5532 3 1711 457 640 2489 415 730 3473 495 385 4570 6126 313 287 3539 243 164 1297 3341 1718 220 762 139 199 5325 1760 287 350 28071 451
internal_value=0.150247 0.195272 0.00507516 0.0569381 0.0418326 -0.0226222 0.142732 0.135255 0.124155 0.10145 0.20842 0.117294 -0.0290764 0.0492922 0.0157963 -0.0190483 0.133407 0.0160748 0.0359264 0.0579844 0.0846934 0.151899 0.0609341 0.133027 -0.0318675 0.0179644 0.124613 0.0920366 -0.0353459 0.121824
internal_weight=16710.9 12755 3955.96 1377.19 1125.88 2578.77 2553.08 2240.16 1790.92 342.235 10201.9 1627.71 2366.39 212.381 783.647 286.948 60.1261 152.255 496.699 183.84 63.2758 158.395 71.1712 37.0257 2295.22 149.758 251.306 144.702 2145.46 120.386
internal_count=75492 22637 52855 14208 12480 38647 12535 11805 10094 2868 10102 9599 36264 2383 9612 3782 451 1932 5830 1721 635 1147 795 338 35469 2073 1728 1088 33396 801
is_linear=0
shrinkage=0.05


Tree=4
num_leaves=31
num_cat=0
split_feature=5 4 5 5 6 4 4 5 4 9 3 0 7 4 6 10 10 4 10 7 7 9 4 9 10 9 9 0 10 7
split_gain=32207.6 2634.58 1995.36 539.918 466.808 327.553 327.057 301.009 297.406 286.155 295.85 243.888 226.241 223.652 212.025 201.436 194.856 189.93 188.9 190.909 184.472 171.908 168.545 164.705 163.207 159.167 159.149 195.114 158.754 151.517
threshold=4.5000000000000009 0.15587044534412958 7.5000000000000009 5.5000000000000009 14.500000000000002 0.18898809523809526 0.31142241379310348 1.5000000000000002 0.92153846153846175 0.60258374035432516 1.0000000180025095e-35 -1.0000000180025095e-35 0.069884958606601447 0.30602006688963218 9.5000000000000018 0.051313154567522924 -0.25542286209023313 0.26491228070175443 -0.05131315456752291 0.59671003117944321 0.75798301257929268 0.76731886361665869 0.93218390804597717 0.68639634692638951 0.083474770656580377 0.7586485939712726 0.6213693245859947 -0.37940952255126059 -0.17315666518778641 0.49994624233953344
decision_type=2 2 2 2 2 2 2 2 2 2 2 2 2 2 2 2 2 2 2 2 2 2 2 2 2 2 2 2 2 2
left_child=1 7 3 6 9 15 18 -1 28 17 29 -10 -13 -12 25 23 -16 -3 -2 -20 -19 -8 -14 -6 -18 -5 -9 -28 -4 -11
right_child=2 4 8 14 5 -7 21 26 11 10 13 12 22 -15 16 -17 24 20 19 -21 -22 -23 -24 -25 -26 -27 27 -29 -30 -31
leaf_value=0.1806882269213918 0.098529753825056368 0.16161458743198839 0.049322816632396377 0.058122467213894261 0.11206737323760566 0.047651951661099763 0.11775994626971752 0.16892117325613598 -0.02616622046379527 0.044074633314536919 0.042869266874083149 0.29898448551550694 0.47589891137587603 0.24724715939280376 0.19740941329033246 0.16536486818134755 -0.0098475861947133012 0.13455576553395615 0.053656165117030322 -0.024244785820483394 0.040942589153148301 -0.011454075402030663 0.047100611275668766 0.040486960785364276 0.07451494022042264 -0.040701059762036841 0.11091932334823838 0.16304570174625987 -0.037171693490298127 0.1537763185430969
leaf_weight=8576.8622184991837 118.01413933187723 837.11952228099108 54.609277840703726 363.23018097877502 368.01601918041706 293.82151909917593 332.68774913996458 2325.7100234478712 69.020209975540638 36.781012505292892 190.30302942544222 12.491096585988997 2.3891291022300711 14.398609206080435 12.478086076676844 136.78710401803255 615.07719174027443 315.36026421934366 214.31117282807827 124.23949107527733 63.166280217468739 27.899151422083378 56.171937420964241 102.81504755467176 63.222676426172256 45.892640240490437 296.79230082035065 454.33269710838795 1858.3220189549029 218.21513813734055
leaf_count=5532 790 2570 601 3898 1949 2729 2131 3747 1050 227 1019 67 14 21 73 351 8451 1176 2006 1560 382 254 712 691 571 612 800 782 30065 661
internal_value=0.130628 0.165759 0.00470062 0.0413832 0.120007 0.0909947 0.0721685 0.175875 -0.0295529 0.135618 0.102014 0.0407744 0.105801 0.0572451 0.0185119 0.111954 0.00161745 0.148325 0.044057 0.0250685 0.118934 0.107762 0.0645944 0.0964364 -0.00198436 0.0470371 0.162459 0.142449 -0.0347025 0.137953
internal_weight=18200.5 14230.5 3970.06 1917.05 2576.78 901.44 817.152 11653.7 2053 1675.34 459.698 140.072 71.0522 204.702 1099.9 607.618 690.778 1215.65 456.565 338.551 378.527 360.587 58.5611 470.831 678.3 409.123 3076.84 751.125 1912.93 254.996
internal_count=75492 22637 52855 20346 11776 5720 6741 10861 32509 6056 1928 1843 793 1040 13605 2991 9095 4128 4356 3566 1558 2385 726 2640 9022 4510 5329 1582 30666 888
is_linear=0
shrinkage=0.05


Tree=5
num_leaves=31
num_cat=0
split_feature=5 5 5 9 1 12 1 11 12 5 1 9 5 7 9 4 9 7 9 9 9 0 5 7 1 4 0 5 4 9
split_gain=26165.3 2077.1 1707.72 469.726 336.038 272.123 265.317 320.486 262.647 254.401 277.699 242.872 177.835 157.414 155.082 165.096 148.196 141.84 141.759 128.882 126.825 175.034 126.182 118.326 151.138 111.573 277.339 124.802 111.468 110.14
threshold=4.5000000000000009 2.5000000000000004 6.5000000000000009 0.74708823444409134 0.98296291314453421 1.5000000000000002 -0.98296291314453399 -1.0000000180025095e-35 -1.4999999999999998 3.5000000000000004 0.9159756150367534 0.66038553799023159 1.5000000000000002 0.026878830233308251 0.47252969567353548 0.86436781609195412 0.77598913326204466 0.016127298139984942 0.64593508858125503 0.53900176295482793 0.6213693245859947 -0.5 5.5000000000000009 0.82249220513923238 -0.98296291314453399 0.92153846153846175 0.60355339059327384 8.5000000000000018 0.98275862068965536 0.5216612236640561
decision_type=2 2 2 2 2 2 2 2 2 2 2 2 2 2 2 2 2 2 2 2 2 2 2 2 2 2 2 2 2 2
left_child=1 12 5 9 6 8 7 16 19 10 18 14 -1 -12 15 -6 -4 -10 -3 29 -14 -22 -19 24 -5 27 -27 -8 -9 -2
right_child=2 3 4 23 11 -7 25 28 17 -11 13 -13 20 -15 -16 -17 -18 22 -20 -21 21 -23 -24 -25 -26 26 -28 -29 -30 -31
leaf_value=0.15753207206673459 0.11640354812293437 0.13992205337733243 0.078630741229731405 0.12835243361593834 0.012933203138821819 0.10661275526614769 -0.021197056134700219 -0.019189188563518065 0.13634566715183211 0.097330279753392229 0.25904029306702453 0.13085322734771246 0.14924535379108658 0.026797315767696735 -0.054117744334912746 0.17875853679564419 0.27878964378526638 0.039880377610527797 0.093346440168705497 0.027251132688647112 0.084159409002761643 0.13998542490246141 0.0068187622966142314 0.12158440081779394 0.027630419078287234 -0.037913654272101673 0.13263279368201372 -0.047425886002585904 0.24049169156559427 0.28502577410230351
leaf_weight=9039.6580709218979 76.359484530985355 1252.8548985123634 23.695398554205894 43.439910218119621 74.392395466566086 149.75867062062025 699.35232294723392 110.1245658993721 29.669950917363167 1158.3610927835107 7.955241620540618 50.569459401071072 2409.7370909154415 88.078514710068703 65.249581553041935 18.803672894835472 15.166619770228861 670.66789034754038 187.8686670139432 37.755404621362686 189.87180186808109 538.96222281455994 506.58281014859676 55.155087910592556 261.15834623575211 80.521887809038162 33.8623948097229 1290.2489206418395 4.2935994416475287 11.090482257306574
leaf_count=5452 477 3571 239 153 914 855 10539 1687 246 5646 15 332 3211 543 992 123 96 5923 732 334 518 831 6455 186 1645 1256 366 22125 37 34
internal_value=0.114994 0.144725 0.000287241 0.107861 -0.0252026 0.0427096 -0.0308188 0.0326908 0.0355256 0.115024 0.128361 0.0354494 0.153972 0.0460359 0.00500038 0.0463909 0.156746 0.0283748 0.133849 0.104456 0.143718 0.125442 0.0256536 0.0541969 0.0419948 -0.0354456 0.012575 -0.0382064 -0.00944453 0.137788
internal_weight=19181.3 15233.1 3948.17 3054.87 2466.28 1481.88 2257.27 153.28 1332.13 2695.12 1536.76 209.015 12178.2 96.0338 158.446 93.1961 38.862 1206.92 1440.72 125.205 3138.57 728.834 1177.25 359.753 304.598 2103.99 114.384 1989.6 114.418 87.45
internal_count=75533 22503 53030 12491 38706 14324 36345 2059 13469 10507 4861 2361 10012 558 2029 1037 335 12624 4303 845 4560 1349 12378 1984 1798 34286 1622 32664 1724 511
is_linear=0
shrinkage=0.05


Tree=6
num_leaves=31
num_cat=0
split_feature=4 4 4 6 6 9 4 6 1 4 12 4 12 12 3 9 4 0 9 6 9 1 1 1 1 12 4 6 1 4
split_gain=19473 1867.66 1654.16 742.285 459.163 329.586 293.221 352.33 302.281 272.576 252.476 217.319 196.202 193.386 192.307 199.362 173.58 180.625 164.493 162.628 156.082 147.677 138.188 137.413 136.082 129.708 122.206 119.354 111.214 111.137
threshold=0.25543478260869573 0.33908045977011497 0.15587044534412958 11.500000000000002 14.500000000000002 0.61125400999971113 0.4701754385964913 9.5000000000000018 0.98296291314453421 0.18898809523809526 1.0000000180025095e-35 0.083478260869565238 -2.4999999999999996 1.5000000000000002 1.0000000180025095e-35 0.8294557960752581 0.92153846153846175 0.60355339059327384 0.66038553799023159 1.5000000000000002 0.68639634692638951 -0.78656609248549325 1.0000000180025095e-35 0.60355339059327384 0.9159756150367534 -3.4999999999999996 0.65108695652173931 7.5000000000000009 -0.9159756150367534 0.31414473684210531
decision_type=2 2 2 2 2 2 2 2 2 2 2 2 2 2 2 2 2 2 2 2 2 2 2 2 2 2 2 2 2 2
left_child=2 3 11 27 5 23 7 10 16 20 -3 -1 -9 25 15 -11 -8 -18 19 -10 24 -7 -12 -4 -6 -5 -20 -2 -14 -29
right_child=1 6 4 13 9 21 8 12 18 14 22 -13 28 -15 -16 -17 17 -19 26 -21 -22 -23 -24 -25 -26 -27 -28 29 -30 -31
leaf_value=0.14075807403836649 0.17468727210419074 0.014964477440908494 0.133308614027774 0.17888792219451763 0.10558180587422217 0.098811638897586887 -0.040255692645339118 0.13403321897152379 0.11948855359073961 0.053155632575795413 0.12259436686983412 0.12639520145380875 0.023521579823925314 0.09564666345269042 0.0016872175921230572 0.20396631598997317 -0.01806079069072342 0.11243716151184974 0.17849636882117226 -0.025041653416100648 0.041755870453277687 0.027472566442573232 -0.0063651130976479777 0.081064908206209652 -0.010408627702748609 0.0032040027097394261 -0.0073790897402154949 0.087472750043019423 -0.034990114898078427 0.050133970774045036
leaf_weight=9627.5826041847467 32.017039626836777 315.38103874027729 879.82468751817942 10.672775000333784 545.11142208427191 155.80817641317844 1364.7909646742046 20.088458828628063 24.977490972727537 224.90482696145773 106.0861298777163 3625.3425185233355 98.031609669327736 65.878687329590321 196.37904930859804 24.279548183083534 88.650875210762024 37.832058675587177 29.436472348868847 88.164073321968317 142.76268194615841 135.74555456638336 25.831291355192661 146.87423850595951 26.517012476921082 672.87404393404722 12.639847084879873 681.76585914194584 473.29506511241198 281.60197040438652
leaf_count=5496 73 3588 2004 49 2003 487 23865 201 163 1828 833 5298 1388 402 1845 129 1345 366 136 1351 797 728 295 633 199 7787 106 2664 7457 2017
internal_value=0.103741 0.0111424 0.129818 0.051417 0.0923236 0.112512 -0.0150275 0.00577482 -0.0281509 0.0693799 0.0392594 0.136829 -0.0195502 0.0138322 0.0386892 0.06785 -0.0350626 0.0209722 0.0382545 0.00686529 0.0885216 0.0655966 0.0973423 0.125835 0.100201 0.0059471 0.122659 0.0797146 -0.0249503 0.0765583
internal_weight=20161.1 4430.02 15731.1 1744.81 2478.21 1318.25 2685.21 1038.71 1646.49 1159.95 447.298 13252.9 591.415 749.426 445.563 249.184 1491.27 126.483 155.218 113.142 714.391 291.554 131.917 1026.7 571.628 683.547 42.0763 995.385 571.327 963.368
internal_count=75533 54086 21447 12992 10653 3852 41094 13762 27332 6801 4716 10794 9046 8238 3802 1957 25576 1711 1756 1514 2999 1215 1128 2637 2202 7836 242 4754 8845 4681
is_linear=0
shrinkage=0.05


Tree=7
num_leaves=31
num_cat=0
split_feature=5 5 5 1 1 11 6 1 5 11 11 6 4 12 12 2 2 5 12 4 5 6 5 4 6 4 1 0 0 7
split_gain=17333.2 1647.23 1390.85 288.959 248.006 250.427 227.412 261.058 182.683 151.902 200.493 160.17 287.507 150.534 160.943 142.938 132.832 119.073 111.046 108.167 98.4485 88.6265 154.881 85.0686 80.2337 78.7459 74.9118 74.0967 76.3911 68.6619
threshold=4.5000000000000009 2.5000000000000004 6.5000000000000009 0.98296291314453421 -0.98296291314453399 -1.0000000180025095e-35 9.5000000000000018 -0.12940952255126037 1.5000000000000002 1.0000000180025095e-35 -1.0000000180025095e-35 14.500000000000002 0.19523809523809527 1.5000000000000002 -1.4999999999999998 1.0000000180025095e-35 1.0000000180025095e-35 5.5000000000000009 -3.4999999999999996 0.92153846153846175 10.500000000000002 8.5000000000000018 9.5000000000000018 0.98275862068965536 11.500000000000002 0.28285714285714292 0.60355339059327384 0.91597561503675362 0.37940952255126054 0.58595849908611986
decision_type=2 2 2 2 2 2 2 2 2 2 2 2 2 2 2 2 2 2 2 2 2 2 2 2 2 2 2 2 2 2
left_child=1 8 6 4 5 16 7 -2 -1 10 27 25 -13 14 24 21 -4 -16 20 -20 -6 22 -5 -7 -8 -12 -10 28 -3 -15
right_child=2 9 3 15 18 23 13 -9 26 -11 11 12 -14 29 17 -17 -18 -19 19 -21 -22 -23 -24 -25 -26 -27 -28 -29 -30 -31
leaf_value=0.12786375866508964 0.097612855960210229 0.10593389066085504 0.17333180115604946 0.13999636280881461 0.11898663414211122 -0.017962885479352288 0.13816984600905105 0.0062411864480697403 0.11695003648275731 0.10945212977512736 0.083311131077277167 0.074603751420062023 0.01242984321816938 0.1083356401958173 0.027149015995389165 -0.053691915157264972 -0.05539594648666693 -0.0091975842512830499 -0.038847410859559041 0.010700500299802115 -0.053973601683141081 -0.0054277242706417348 0.027196125921297443 0.18986191133385866 0.044270729626436037 0.14687955963622176 0.091640119444085913 0.15582894546631881 0.04517808757147565 0.029135771164765241
leaf_weight=10022.739840269089 264.63808702677488 523.00872556120157 35.897609770298004 50.939586490392685 21.861874472349882 106.6864709071815 38.379545621573925 110.94516761600971 3218.5745700895786 564.76660064607859 1203.8579558059573 739.25740994513035 248.42424272745848 75.268780224025249 627.52238712459803 40.722489181905985 7.710993416607379 351.58142910152674 1844.16526337713 117.1464319974184 13.19173416122794 51.067198906093836 75.585695058107376 5.1622134149074546 55.862017899751663 50.772128894925117 321.56233611702919 66.010516703128815 57.417612388730049 42.99900683760643
leaf_count=5452 1805 1421 245 281 234 1687 161 1085 3928 1334 4092 3000 2215 343 5490 671 90 4743 32235 1607 210 640 769 37 423 95 632 119 215 274
internal_value=0.0946901 0.116565 0.000150944 -0.0240139 -0.0295747 0.0312546 0.0366964 0.0706222 0.124415 0.0857361 0.0810995 0.0740269 0.0589656 0.0260034 0.0201043 0.0307965 0.132888 0.0140975 -0.0343115 -0.035888 0.0538965 0.05017 0.07261 -0.00837103 0.0825108 0.0858836 0.114651 0.105632 0.0999237 0.0795407
internal_weight=20953.7 17016.4 3937.33 2370.14 2151.82 155.457 1567.2 375.583 13562.9 3453.52 2888.75 2242.31 987.682 1191.61 1073.35 218.315 43.6086 979.104 1996.37 1961.31 35.0536 177.592 126.525 111.849 94.2416 1254.63 3540.14 646.437 580.426 118.268
internal_count=75533 22503 53030 38706 36345 2059 14324 2890 10012 12491 11157 9402 5215 11434 10817 2361 335 10233 34286 33842 444 1690 1050 1724 584 4187 4560 1755 1636 617
is_linear=0
shrinkage=0.05


end of trees

feature_importances:
bikes_available=41
hour_cos=33
occupancy=32
temp_norm=26
trend_15min=26
docks_available=20
wind_norm=17
acceleration=17
hour_sin=11
velocity=11
is_weekend=3
is_rush_hour=3

parameters:
[boosting: gbdt]
[objective: binary]
[metric: binary_logloss]
[tree_learner: serial]
[device_type: cpu]
[data_sample_strategy: bagging]
[data: ]
[valid: ]
[num_iterations: 500]
[learning_rate: 0.05]
[num_leaves: 31]
[num_threads: -1]
[seed: 42]
[deterministic: 0]
[force_col_wise: 0]
[force_row_wise: 0]
[histogram_pool_size: -1]
[max_depth: 6]
[min_data_in_leaf: 20]
[min_sum_hessian_in_leaf: 0.001]
[bagging_fraction: 0.8]
[pos_bagging_fraction: 1]
[neg_bagging_fraction: 1]
[bagging_freq: 5]
[bagging_seed: 400]
[bagging_by_query: 0]
[feature_fraction: 0.8]
[feature_fraction_bynode: 1]
[feature_fraction_seed: 30056]
[extra_trees: 0]
[extra_seed: 12879]
[early_stopping_round: 0]
[early_stopping_min_delta: 0]
[first_metric_only: 0]
[max_delta_step: 0]
[lambda_l1: 0]
[lambda_l2: 0]
[linear_lambda: 0]
[min_gain_to_split: 0]
[drop_rate: 0.1]
[max_drop: 50]
[skip_drop: 0.5]
[xgboost_dart_mode: 0]
[uniform_drop: 0]
[drop_seed: 17869]
[top_rate: 0.2]
[other_rate: 0.1]
[min_data_per_group: 100]
[max_cat_threshold: 32]
[cat_l2: 10]
[cat_smooth: 10]
[max_cat_to_onehot: 4]
[top_k: 20]
[monotone_constraints: ]
[monotone_constraints_method: basic]
[monotone_penalty: 0]
[feature_contri: ]
[forcedsplits_filename: ]
[refit_decay_rate: 0.9]
[cegb_tradeoff: 1]
[cegb_penalty_split: 0]
[cegb_penalty_feature_lazy: ]
[cegb_penalty_feature_coupled: ]
[path_smooth: 0]
[interaction_constraints: ]
[verbosity: -1]
[saved_feature_importance_type: 0]
[use_quantized_grad: 0]
[num_grad_quant_bins: 4]
[quant_train_renew_leaf: 0]
[stochastic_rounding: 1]
[linear_tree: 0]
[max_bin: 255]
[max_bin_by_feature: ]
[min_data_in_bin: 3]
[bin_construct_sample_cnt: 200000]
[data_random_seed: 175]
[is_enable_sparse: 1]
[enable_bundle: 1]
[use_missing: 1]
[zero_as_missing: 0]
[feature_pre_filter: 1]
[pre_partition: 0]
[two_round: 0]
[header: 0]
[label_column: ]
[weight_column: ]
[group_column: ]
[ignore_column: ]
[categorical_feature: ]
[forcedbins_filename: ]
[precise_float_parser: 0]
[parser_config_file: ]
[objective_seed: 16083]
[num_class: 1]
[is_unbalance: 1]
[scale_pos_weight: 1]
[sigmoid: 1]
[boost_from_average: 1]
[reg_sqrt: 0]
[alpha: 0.9]
[fair_c: 1]
[poisson_max_delta_step: 0.7]
[tweedie_variance_power: 1.5]
[lambdarank_truncation_level: 30]
[lambdarank_norm: 1]
[label_gain: ]
[lambdarank_position_bias_regularization: 0]
[eval_at: ]
[multi_error_top_k: 1]
[auc_mu_weights: ]
[num_machines: 1]
[local_listen_port: 12400]
[time_out: 120]
[machine_list_filename: ]
[machines: ]
[gpu_platform_id: -1]
[gpu_device_id: -1]
[gpu_use_dp: 0]
[num_gpu: 1]

end of parameters

pandas_categorical:[]
